FANN_FLO_2.1
num_layers=4
learning_rate=0.700000
connection_rate=1.000000
network_type=0
learning_momentum=0.000000
training_algorithm=2
train_error_function=1
train_stop_function=0
cascade_output_change_fraction=0.010000
quickprop_decay=-0.000100
quickprop_mu=1.750000
rprop_increase_factor=1.200000
rprop_decrease_factor=0.500000
rprop_delta_min=0.000000
rprop_delta_max=50.000000
rprop_delta_zero=0.100000
cascade_output_stagnation_epochs=12
cascade_candidate_change_fraction=0.010000
cascade_candidate_stagnation_epochs=12
cascade_max_out_epochs=150
cascade_min_out_epochs=50
cascade_max_cand_epochs=150
cascade_min_cand_epochs=50
cascade_num_candidate_groups=2
bit_fail_limit=3.49999994039535520000e-001
cascade_candidate_limit=1.00000000000000000000e+003
cascade_weight_multiplier=4.00000005960464480000e-001
cascade_activation_functions_count=10
cascade_activation_functions=3 5 7 8 10 11 14 15 16 17 
cascade_activation_steepnesses_count=4
cascade_activation_steepnesses=2.50000000000000000000e-001 5.00000000000000000000e-001 7.50000000000000000000e-001 1.00000000000000000000e+000 
layer_sizes=26 16 11 26 
scale_included=0
neurons (num_inputs, activation_function, activation_steepness)=(0, 0, 0.00000000000000000000e+000) (0, 0, 0.00000000000000000000e+000) (0, 0, 0.00000000000000000000e+000) (0, 0, 0.00000000000000000000e+000) (0, 0, 0.00000000000000000000e+000) (0, 0, 0.00000000000000000000e+000) (0, 0, 0.00000000000000000000e+000) (0, 0, 0.00000000000000000000e+000) (0, 0, 0.00000000000000000000e+000) (0, 0, 0.00000000000000000000e+000) (0, 0, 0.00000000000000000000e+000) (0, 0, 0.00000000000000000000e+000) (0, 0, 0.00000000000000000000e+000) (0, 0, 0.00000000000000000000e+000) (0, 0, 0.00000000000000000000e+000) (0, 0, 0.00000000000000000000e+000) (0, 0, 0.00000000000000000000e+000) (0, 0, 0.00000000000000000000e+000) (0, 0, 0.00000000000000000000e+000) (0, 0, 0.00000000000000000000e+000) (0, 0, 0.00000000000000000000e+000) (0, 0, 0.00000000000000000000e+000) (0, 0, 0.00000000000000000000e+000) (0, 0, 0.00000000000000000000e+000) (0, 0, 0.00000000000000000000e+000) (0, 0, 0.00000000000000000000e+000) (26, 5, 5.00000000000000000000e-001) (26, 5, 5.00000000000000000000e-001) (26, 5, 5.00000000000000000000e-001) (26, 5, 5.00000000000000000000e-001) (26, 5, 5.00000000000000000000e-001) (26, 5, 5.00000000000000000000e-001) (26, 5, 5.00000000000000000000e-001) (26, 5, 5.00000000000000000000e-001) (26, 5, 5.00000000000000000000e-001) (26, 5, 5.00000000000000000000e-001) (26, 5, 5.00000000000000000000e-001) (26, 5, 5.00000000000000000000e-001) (26, 5, 5.00000000000000000000e-001) (26, 5, 5.00000000000000000000e-001) (26, 5, 5.00000000000000000000e-001) (0, 5, 0.00000000000000000000e+000) (16, 5, 5.00000000000000000000e-001) (16, 5, 5.00000000000000000000e-001) (16, 5, 5.00000000000000000000e-001) (16, 5, 5.00000000000000000000e-001) (16, 5, 5.00000000000000000000e-001) (16, 5, 5.00000000000000000000e-001) (16, 5, 5.00000000000000000000e-001) (16, 5, 5.00000000000000000000e-001) (16, 5, 5.00000000000000000000e-001) (16, 5, 5.00000000000000000000e-001) (0, 5, 0.00000000000000000000e+000) (11, 5, 5.00000000000000000000e-001) (11, 5, 5.00000000000000000000e-001) (11, 5, 5.00000000000000000000e-001) (11, 5, 5.00000000000000000000e-001) (11, 5, 5.00000000000000000000e-001) (11, 5, 5.00000000000000000000e-001) (11, 5, 5.00000000000000000000e-001) (11, 5, 5.00000000000000000000e-001) (11, 5, 5.00000000000000000000e-001) (11, 5, 5.00000000000000000000e-001) (11, 5, 5.00000000000000000000e-001) (11, 5, 5.00000000000000000000e-001) (11, 5, 5.00000000000000000000e-001) (11, 5, 5.00000000000000000000e-001) (11, 5, 5.00000000000000000000e-001) (11, 5, 5.00000000000000000000e-001) (11, 5, 5.00000000000000000000e-001) (11, 5, 5.00000000000000000000e-001) (11, 5, 5.00000000000000000000e-001) (11, 5, 5.00000000000000000000e-001) (11, 5, 5.00000000000000000000e-001) (11, 5, 5.00000000000000000000e-001) (11, 5, 5.00000000000000000000e-001) (11, 5, 5.00000000000000000000e-001) (11, 5, 5.00000000000000000000e-001) (0, 5, 0.00000000000000000000e+000) 
connections (connected_to_neuron, weight)=(0, 6.13855540752410890000e-001) (1, -2.34342329204082490000e-002) (2, -1.24190658330917360000e-001) (3, -1.98745071887969970000e-001) (4, 1.39960050582885740000e-001) (5, 3.34351569414138790000e-001) (6, -1.36527679860591890000e-002) (7, 4.43404167890548710000e-001) (8, 2.52753883600234990000e-001) (9, 4.01008486747741700000e-001) (10, -7.95710384845733640000e-001) (11, 9.54717770218849180000e-002) (12, 2.66815394163131710000e-001) (13, 3.63557636737823490000e-001) (14, 5.89419364929199220000e-001) (15, 2.94915199279785160000e-001) (16, 3.78250926733016970000e-002) (17, 2.84514307975769040000e-001) (18, 3.26724469661712650000e-001) (19, 1.47408053278923030000e-001) (20, 3.50557923316955570000e-001) (21, -5.05067035555839540000e-002) (22, -4.51327949762344360000e-001) (23, -1.09817421436309810000e+000) (24, -3.04593443870544430000e-001) (25, 5.70127427577972410000e-001) (0, 2.92486131191253660000e-001) (1, 4.52391654253005980000e-001) (2, 2.74296719580888750000e-002) (3, 7.51128643751144410000e-002) (4, -1.76440067589282990000e-002) (5, -2.27614283561706540000e-001) (6, -3.71979564428329470000e-001) (7, -2.31636762619018550000e-001) (8, -3.35245251655578610000e-001) (9, -2.26207897067070010000e-001) (10, -3.26056331396102910000e-001) (11, -1.95610091090202330000e-001) (12, -1.77567526698112490000e-001) (13, -3.23258936405181880000e-001) (14, -1.43006801605224610000e-001) (15, -2.96669125556945800000e-001) (16, -2.36943602561950680000e-001) (17, 4.71782952547073360000e-001) (18, -3.00004273653030400000e-001) (19, -2.53665834665298460000e-001) (20, -1.95847660303115840000e-001) (21, -1.16316847503185270000e-001) (22, 4.22904580831527710000e-001) (23, -2.55183577537536620000e-001) (24, -2.43189737200737000000e-001) (25, 3.97533357143402100000e-001) (0, -5.55130302906036380000e-001) (1, -5.71580410003662110000e-001) (2, 2.72724423557519910000e-002) (3, -2.70358044654130940000e-002) (4, 8.73776674270629880000e-002) (5, -2.25084155797958370000e-001) (6, -4.10400420427322390000e-001) (7, -6.85594081878662110000e-002) (8, 2.68369466066360470000e-001) (9, -1.92556306719779970000e-001) (10, -2.11245328187942500000e-001) (11, -1.64386332035064700000e-001) (12, 5.76144278049468990000e-001) (13, 7.49498307704925540000e-001) (14, 6.23338401317596440000e-001) (15, -2.31291130185127260000e-001) (16, -5.34813664853572850000e-002) (17, 7.16999650001525880000e-001) (18, 3.91323506832122800000e-001) (19, 4.49390292167663570000e-001) (20, -1.79936245083808900000e-001) (21, -3.94592173397541050000e-002) (22, -1.17953391745686530000e-002) (23, -5.45106595382094380000e-003) (24, -9.07730218023061750000e-003) (25, 3.18794459104537960000e-001) (0, 1.84237837791442870000e-001) (1, 1.02824255824089050000e-001) (2, -1.10233992338180540000e-001) (3, -1.34522184729576110000e-001) (4, -8.31509605050086980000e-002) (5, -4.54061888158321380000e-002) (6, 1.28118559718132020000e-001) (7, 2.27083623409271240000e-001) (8, 1.72548860311508180000e-001) (9, 2.53513246774673460000e-001) (10, -1.78971171379089360000e-001) (11, -1.19887456297874450000e-001) (12, 2.20409892499446870000e-002) (13, 8.43718647956848140000e-002) (14, 1.90360069274902340000e-001) (15, -2.88160406053066250000e-002) (16, -2.04991549253463750000e-001) (17, 9.67071652412414550000e-002) (18, 1.34219437837600710000e-001) (19, 2.39594519138336180000e-001) (20, -1.66362196207046510000e-001) (21, -1.19671992957592010000e-001) (22, -9.38766915351152420000e-003) (23, 2.40768358111381530000e-001) (24, 2.46523246169090270000e-001) (25, 5.05826234817504880000e-001) (0, 3.15520435571670530000e-001) (1, 3.56491327285766600000e-001) (2, 4.83941704034805300000e-001) (3, 1.53795421123504640000e-001) (4, 2.26590484380722050000e-001) (5, 7.54597008228302000000e-001) (6, 7.44367837905883790000e-001) (7, 6.77101552486419680000e-001) (8, 4.23550277948379520000e-001) (9, 2.89384990930557250000e-001) (10, 7.14103996753692630000e-001) (11, 4.64731067419052120000e-001) (12, 5.43380498886108400000e-001) (13, 5.68203806877136230000e-001) (14, 3.10045868158340450000e-001) (15, 3.42539042234420780000e-001) (16, -3.29460091888904570000e-002) (17, -1.20979174971580510000e-001) (18, 7.15773645788431170000e-003) (19, -5.81335276365280150000e-003) (20, -6.29442393779754640000e-001) (21, -1.68716460466384890000e-001) (22, -2.41216212511062620000e-001) (23, -2.05813720822334290000e-001) (24, -3.17108392715454100000e-001) (25, 1.09744942188262940000e+000) (0, 4.63865250349044800000e-001) (1, -1.79662078619003300000e-001) (2, -1.02807372808456420000e-001) (3, 2.49877944588661190000e-001) (4, 3.36407572031021120000e-002) (5, -6.27642050385475160000e-002) (6, -1.11962690949440000000e-001) (7, -1.37464404106140140000e-001) (8, -8.75347033143043520000e-002) (9, 2.76922676712274550000e-002) (10, -1.48627415299415590000e-001) (11, -3.22231203317642210000e-001) (12, -1.62822037935256960000e-001) (13, 5.53974926471710210000e-001) (14, 2.24143624305725100000e-001) (15, 7.30570731684565540000e-003) (16, -1.16310745477676390000e-001) (17, -1.74996599555015560000e-001) (18, 3.66848677396774290000e-001) (19, 2.58110940456390380000e-001) (20, 6.56580775976181030000e-002) (21, 9.87884625792503360000e-002) (22, 6.00786581635475160000e-002) (23, -1.45897686481475830000e-001) (24, 7.33379423618316650000e-002) (25, 3.03083419799804690000e-001) (0, -3.65416586399078370000e-001) (1, -4.78927046060562130000e-001) (2, -3.71877014636993410000e-001) (3, 7.04514205455780030000e-001) (4, -8.53305086493492130000e-002) (5, 1.45958989858627320000e-001) (6, -1.52541399002075200000e-001) (7, 1.95297658443450930000e-001) (8, 5.54823637008666990000e-001) (9, 9.74828079342842100000e-002) (10, 6.24030768871307370000e-001) (11, 1.66740790009498600000e-001) (12, 8.90081077814102170000e-002) (13, 4.09816324710845950000e-001) (14, 2.39023163914680480000e-001) (15, 4.15212184190750120000e-001) (16, 4.51974213123321530000e-001) (17, 4.22727614641189580000e-001) (18, 3.14272195100784300000e-001) (19, 4.05658811330795290000e-001) (20, 4.00976449251174930000e-001) (21, 2.56951332092285160000e-001) (22, 3.01199674606323240000e-001) (23, 1.88178360462188720000e-001) (24, 5.91157853603363040000e-001) (25, 8.40487003326416020000e-001) (0, -8.26996088027954100000e-001) (1, -1.52767002582550050000e+000) (2, -1.07721912860870360000e+000) (3, -3.61615002155303960000e-001) (4, 9.56396088004112240000e-002) (5, -2.81033873558044430000e-001) (6, -2.91293859481811520000e-001) (7, -2.08036750555038450000e-001) (8, -1.90445855259895320000e-001) (9, -5.77749088406562810000e-002) (10, 3.67154330015182500000e-001) (11, 9.65626835823059080000e-002) (12, -3.91687065362930300000e-001) (13, -2.26328223943710330000e-001) (14, -8.88922363519668580000e-002) (15, 6.34419858455657960000e-001) (16, 3.57892394065856930000e-001) (17, 1.52607098221778870000e-001) (18, 4.85619753599166870000e-002) (19, -2.45144609361886980000e-002) (20, 1.51034462451934810000e+000) (21, 7.37760305404663090000e-001) (22, 6.10832870006561280000e-001) (23, 4.41037565469741820000e-001) (24, 4.46222990751266480000e-001) (25, 3.52852344512939450000e-001) (0, -3.10611035674810410000e-002) (1, 2.82742619514465330000e-001) (2, 4.57748651504516600000e-001) (3, 2.63603568077087400000e-001) (4, -8.62910002470016480000e-002) (5, -2.83071279525756840000e-001) (6, 8.52806940674781800000e-002) (7, 2.83684819936752320000e-001) (8, 3.03520083427429200000e-001) (9, -1.16301938891410830000e-001) (10, -1.58102929592132570000e+000) (11, -3.60060781240463260000e-001) (12, 1.84370428323745730000e-001) (13, -4.72364038228988650000e-001) (14, -4.88360345363616940000e-001) (15, 8.67924243211746220000e-002) (16, 1.29280462861061100000e-001) (17, 1.26142427325248720000e-001) (18, 2.49346047639846800000e-001) (19, -8.61374959349632260000e-002) (20, 1.82926595211029050000e-001) (21, 5.29392838478088380000e-001) (22, 4.35228437185287480000e-001) (23, 2.64294564723968510000e-001) (24, 1.82651802897453310000e-001) (25, 4.08292621374130250000e-001) (0, 4.48208987712860110000e-001) (1, -8.68861973285675050000e-002) (2, -1.24199748039245610000e-001) (3, -2.17848867177963260000e-002) (4, 2.64766126871109010000e-001) (5, -3.88847738504409790000e-001) (6, -2.58642464876174930000e-001) (7, -1.75008326768875120000e-001) (8, 4.08751443028450010000e-002) (9, 3.22439894080162050000e-002) (10, -3.04756522178649900000e-001) (11, -1.94541364908218380000e-001) (12, 1.60885229706764220000e-003) (13, -3.70959013700485230000e-001) (14, 8.03967416286468510000e-002) (15, 4.13004606962203980000e-002) (16, 3.19873422384262080000e-001) (17, 2.13926583528518680000e-001) (18, 1.46980732679367070000e-001) (19, 6.97253644466400150000e-002) (20, 2.17485904693603520000e-001) (21, 6.41009986400604250000e-001) (22, 7.72423446178436280000e-001) (23, 1.25637501478195190000e-001) (24, 1.48374438285827640000e-001) (25, 4.95753824710845950000e-001) (0, -8.62316071987152100000e-001) (1, 1.86854630708694460000e-001) (2, -7.89547339081764220000e-004) (3, 6.59183561801910400000e-002) (4, 1.30318984389305110000e-001) (5, -2.97196984291076660000e-001) (6, 1.81335717439651490000e-001) (7, 4.46508914232254030000e-001) (8, 5.89848399162292480000e-001) (9, 7.76069283485412600000e-001) (10, -2.27958172559738160000e-001) (11, -1.63872968405485150000e-002) (12, 4.10636126995086670000e-001) (13, 8.34162950515747070000e-001) (14, 3.44287365674972530000e-001) (15, -8.43802466988563540000e-002) (16, 1.88827496021986010000e-002) (17, 4.03328597545623780000e-001) (18, 7.15821683406829830000e-001) (19, 7.72027373313903810000e-001) (20, 1.66915915906429290000e-002) (21, 8.99985060095787050000e-002) (22, 2.49190460890531540000e-002) (23, 1.55374333262443540000e-001) (24, 7.51660108566284180000e-001) (25, 6.72890901565551760000e-001) (0, -7.82916173338890080000e-002) (1, 4.09210711717605590000e-001) (2, 3.31143528223037720000e-001) (3, 5.20840167999267580000e-001) (4, 2.56989568471908570000e-001) (5, -3.32959555089473720000e-002) (6, -2.76625789701938630000e-002) (7, -1.79228946566581730000e-001) (8, -3.89524772763252260000e-002) (9, -1.20187938213348390000e-001) (10, 5.55251836776733400000e-001) (11, -4.25837561488151550000e-002) (12, -1.41714438796043400000e-001) (13, -2.18150690197944640000e-001) (14, -1.83472856879234310000e-001) (15, -4.97702062129974370000e-002) (16, -1.18502490222454070000e-001) (17, -8.35227072238922120000e-002) (18, -2.83060580492019650000e-001) (19, -2.92778670787811280000e-001) (20, -8.59027951955795290000e-002) (21, 5.59831082820892330000e-001) (22, 2.61007584631443020000e-002) (23, 2.82880187034606930000e-001) (24, 3.06787014007568360000e-001) (25, 7.37670063972473140000e-001) (0, 1.76219835877418520000e-001) (1, 4.49847280979156490000e-001) (2, 3.69289696216583250000e-001) (3, 3.01797091960906980000e-001) (4, 5.95540285110473630000e-001) (5, 1.86747595667839050000e-001) (6, -8.84911119937896730000e-002) (7, -2.13230222463607790000e-001) (8, -1.36702224612236020000e-001) (9, -2.05556213855743410000e-001) (10, 7.60587900876998900000e-002) (11, -3.57777178287506100000e-002) (12, -4.81336154043674470000e-002) (13, -1.03085011243820190000e-001) (14, -1.51650086045265200000e-001) (15, 1.80786713957786560000e-001) (16, -1.43277019262313840000e-001) (17, -1.35651886463165280000e-001) (18, -7.47932270169258120000e-002) (19, -9.37085524201393130000e-002) (20, -7.36581534147262570000e-002) (21, 3.04964125156402590000e-001) (22, 4.50214684009552000000e-001) (23, 2.59719312191009520000e-001) (24, -1.18330620229244230000e-001) (25, 6.27003788948059080000e-001) (0, 5.35097360610961910000e-001) (1, 2.48040318489074710000e-001) (2, -2.12779909372329710000e-001) (3, -4.73145842552185060000e-001) (4, -4.04752679169178010000e-002) (5, 4.45228546857833860000e-001) (6, -8.10464657843112950000e-003) (7, -2.54229635000228880000e-001) (8, -2.22954273223876950000e-001) (9, -4.12052683532238010000e-002) (10, 2.06602334976196290000e-001) (11, -1.30478367209434510000e-001) (12, -9.29743945598602290000e-001) (13, 1.90849415957927700000e-003) (14, 3.38178426027297970000e-001) (15, -1.39222070574760440000e-001) (16, -3.05423259735107420000e-001) (17, -4.27860766649246220000e-002) (18, 2.61459469795227050000e-001) (19, 7.04140245914459230000e-001) (20, -1.97964340448379520000e-001) (21, -1.59108906984329220000e-001) (22, -2.37066060304641720000e-001) (23, 2.96794444322586060000e-001) (24, 1.34834110736846920000e+000) (25, 5.71946024894714360000e-001) (0, 2.99550592899322510000e-001) (1, 2.74577504023909570000e-003) (2, -7.44466304779052730000e-001) (3, -3.29484373331069950000e-001) (4, -7.36444532871246340000e-001) (5, 3.32546830177307130000e-001) (6, 1.16113834083080290000e-001) (7, -1.43605932593345640000e-001) (8, -3.45504209399223330000e-002) (9, -3.77587497234344480000e-001) (10, 1.19599752128124240000e-001) (11, 3.51584792137146000000e-001) (12, -9.51801538467407230000e-002) (13, 5.81329986453056340000e-002) (14, -1.83469355106353760000e-001) (15, 3.23747903108596800000e-001) (16, 4.91174697875976560000e-001) (17, 4.57714796066284180000e-001) (18, 8.73626172542572020000e-002) (19, 1.44236776977777480000e-002) (20, 4.09370809793472290000e-001) (21, 2.81547576189041140000e-001) (22, 1.44454941153526310000e-001) (23, 8.08931291103363040000e-002) (24, -6.68750470504164700000e-003) (25, 4.15414035320281980000e-001) (26, 1.13067460060119630000e+000) (27, 2.64322549104690550000e-001) (28, 3.90025645494461060000e-001) (29, 1.01136207580566410000e+000) (30, 2.45922267436981200000e-001) (31, -7.18102455139160160000e-001) (32, -4.65379983186721800000e-001) (33, -7.76363730430603030000e-001) (34, 1.23665399849414830000e-001) (35, 2.91884422302246090000e-001) (36, -3.03401947021484380000e-001) (37, -4.77816432714462280000e-001) (38, 1.55824398994445800000e+000) (39, 3.99002104997634890000e-001) (40, 1.18431365489959720000e+000) (41, 5.53309082984924320000e-001) (26, -1.91144898533821110000e-001) (27, 1.32377755641937260000e+000) (28, -9.48505759239196780000e-001) (29, -1.34859061241149900000e+000) (30, 8.55045616626739500000e-002) (31, 3.24158191680908200000e-001) (32, 4.45231169462203980000e-001) (33, -4.52059283852577210000e-002) (34, 6.67357683181762700000e-001) (35, -2.32733428478240970000e-001) (36, 8.41915488243103030000e-001) (37, -6.74817144870758060000e-001) (38, 2.55957961082458500000e-001) (39, 1.30020737648010250000e-001) (40, 1.35576784610748290000e+000) (41, 5.82866966724395750000e-001) (26, 7.95444786548614500000e-001) (27, 2.97298487275838850000e-002) (28, 3.17471504211425780000e-001) (29, 6.05184910818934440000e-003) (30, 7.87692546844482420000e-001) (31, -7.22700655460357670000e-002) (32, 2.33086526393890380000e-001) (33, -4.13412898778915410000e-002) (34, 1.18563793599605560000e-001) (35, 3.18325370550155640000e-001) (36, 3.55738520622253420000e-001) (37, -1.74211010336875920000e-001) (38, -4.69860285520553590000e-001) (39, 1.50200882926583290000e-002) (40, -3.14227819442749020000e-001) (41, 2.46131137013435360000e-001) (26, -2.94580668210983280000e-001) (27, -1.89831689000129700000e-001) (28, -8.27086344361305240000e-003) (29, 3.31246376037597660000e-001) (30, 2.60386131703853610000e-002) (31, 4.87305343151092530000e-001) (32, -2.54093378782272340000e-001) (33, 2.75020867586135860000e-001) (34, 5.92882454395294190000e-001) (35, 3.39651793241500850000e-001) (36, -2.97639191150665280000e-001) (37, 3.44479054212570190000e-001) (38, 5.79631865024566650000e-001) (39, 9.24619257450103760000e-001) (40, -6.76430404186248780000e-001) (41, -1.85268912464380260000e-002) (26, 3.01818430423736570000e-001) (27, 1.83014631271362300000e+000) (28, -2.41168867796659470000e-003) (29, -2.15112462639808650000e-001) (30, 5.09666979312896730000e-001) (31, 2.15580806136131290000e-001) (32, 1.19092464447021480000e+000) (33, 3.58452409505844120000e-001) (34, 4.66080904006958010000e-002) (35, -1.97739765048027040000e-001) (36, 3.90915066003799440000e-001) (37, -2.05777621269226070000e+000) (38, -8.65401446819305420000e-001) (39, 5.67773461341857910000e-001) (40, -2.85736341029405590000e-002) (41, 7.90362417697906490000e-001) (26, 4.83700126409530640000e-001) (27, 1.32962381467223170000e-002) (28, 1.09101986885070800000e+000) (29, 8.55502545833587650000e-001) (30, -2.49449804425239560000e-001) (31, 1.96994975209236150000e-001) (32, 2.88024693727493290000e-001) (33, 1.09184451401233670000e-001) (34, 1.61629393696784970000e-001) (35, 1.48803710937500000000e-001) (36, -3.06956142187118530000e-001) (37, -6.50851652026176450000e-002) (38, 8.15971314907073970000e-001) (39, 7.34939336776733400000e-001) (40, 7.12036311626434330000e-001) (41, 2.96450257301330570000e-001) (26, 4.18114066123962400000e-001) (27, 9.02888119220733640000e-001) (28, -6.74476563930511470000e-001) (29, -1.87307208776474000000e-001) (30, 2.31166973710060120000e-001) (31, 1.26209154725074770000e-001) (32, 7.10548877716064450000e-001) (33, -7.48798489570617680000e-001) (34, 2.51301407814025880000e-001) (35, 4.42748188972473140000e-001) (36, 7.43614584207534790000e-002) (37, 1.53800219297409060000e-001) (38, -3.44528436660766600000e-001) (39, -1.69072404503822330000e-001) (40, -9.59389865398406980000e-001) (41, 7.20880031585693360000e-001) (26, -3.92175823450088500000e-001) (27, 2.05204002559185030000e-002) (28, 6.52662158012390140000e-001) (29, 3.41890901327133180000e-001) (30, 1.70918941497802730000e-001) (31, -2.55933374166488650000e-001) (32, -1.26370966434478760000e-001) (33, -6.24286904931068420000e-002) (34, 9.66593921184539790000e-001) (35, 5.04447162151336670000e-001) (36, -2.44076102972030640000e-001) (37, 4.47500050067901610000e-001) (38, 2.82110661268234250000e-001) (39, -2.37016230821609500000e-001) (40, -3.78858327865600590000e-001) (41, 1.85279339551925660000e-001) (26, 7.54269242286682130000e-001) (27, 1.19185972213745120000e+000) (28, -6.57378137111663820000e-001) (29, -8.25512707233428960000e-001) (30, 3.08017820119857790000e-001) (31, 4.67486053705215450000e-001) (32, 7.65595376491546630000e-001) (33, 8.13531100749969480000e-001) (34, 1.62234306335449220000e-001) (35, 8.16894397139549260000e-002) (36, 5.34938693046569820000e-001) (37, -5.08754611015319820000e-001) (38, -4.48808193206787110000e-001) (39, -4.93539184331893920000e-001) (40, -4.93962317705154420000e-001) (41, 5.56593537330627440000e-001) (26, 3.76143366098403930000e-001) (27, 6.10592104494571690000e-002) (28, 8.28707963228225710000e-002) (29, -2.14281484484672550000e-001) (30, 5.10093867778778080000e-001) (31, -5.82676470279693600000e-001) (32, 8.11078667640686040000e-001) (33, 4.11983042955398560000e-001) (34, 4.19903904199600220000e-001) (35, 4.60366159677505490000e-001) (36, 6.79393291473388670000e-001) (37, -5.88216066360473630000e-001) (38, -6.28286302089691160000e-001) (39, -4.75659444928169250000e-002) (40, 2.15407192707061770000e-001) (41, 3.62165361642837520000e-001) (42, 5.66572248935699460000e-001) (43, 8.11973154544830320000e-001) (44, 5.07837653160095210000e-001) (45, 5.73981761932373050000e-001) (46, -2.03878045082092290000e+000) (47, 1.10747277736663820000e+000) (48, 6.86486065387725830000e-001) (49, -1.90313363075256350000e+000) (50, -7.12990105152130130000e-001) (51, 5.42873084545135500000e-001) (52, -3.65327805280685420000e-001) (42, 4.44308757781982420000e-001) (43, 6.26550316810607910000e-001) (44, 5.32621443271636960000e-001) (45, -1.36994558852165940000e-003) (46, -1.87859165668487550000e+000) (47, 8.58695149421691890000e-001) (48, 6.35079801082611080000e-001) (49, -4.92916047573089600000e-001) (50, -9.85700607299804690000e-001) (51, 6.75570428371429440000e-001) (52, -3.20844650268554690000e-001) (42, 2.50106662511825560000e-001) (43, -7.81638845801353450000e-002) (44, 3.72985899448394780000e-001) (45, -3.06263238191604610000e-001) (46, -1.91975367069244380000e+000) (47, 8.62007200717926030000e-001) (48, 7.41068780422210690000e-001) (49, 3.59151273965835570000e-001) (50, -4.51759129762649540000e-001) (51, 7.61339664459228520000e-001) (52, -2.76335120201110840000e-001) (42, 1.69301643967628480000e-001) (43, -1.01231694221496580000e+000) (44, 2.41266205906867980000e-001) (45, 1.29667073488235470000e-001) (46, -1.99230861663818360000e+000) (47, 8.75007748603820800000e-001) (48, 8.32787394523620610000e-001) (49, 1.38103753328323360000e-001) (50, 6.67380332946777340000e-001) (51, 7.03834354877471920000e-001) (52, -2.66440242528915410000e-001) (42, -1.12805217504501340000e-002) (43, -1.72763514518737790000e+000) (44, 2.64317274093627930000e-001) (45, 8.66933226585388180000e-001) (46, -2.04498195648193360000e+000) (47, 1.05858266353607180000e+000) (48, 9.43105161190032960000e-001) (49, -7.27116286754608150000e-001) (50, 1.60203242301940920000e+000) (51, 5.15038847923278810000e-001) (52, -2.27604076266288760000e-001) (42, 6.45832717418670650000e-001) (43, 4.57740157842636110000e-001) (44, 5.94832837581634520000e-001) (45, 9.38246995210647580000e-002) (46, -2.07205891609191890000e+000) (47, 1.04954564571380620000e+000) (48, 6.76163509488105770000e-002) (49, -1.97200918197631840000e+000) (50, -4.32826697826385500000e-001) (51, 6.44395887851715090000e-001) (52, 1.64995044469833370000e-002) (42, 5.18301844596862790000e-001) (43, 3.37629377841949460000e-001) (44, 7.44907677173614500000e-001) (45, -7.02629864215850830000e-001) (46, -1.72348070144653320000e+000) (47, 8.42177689075469970000e-001) (48, -1.03376284241676330000e-001) (49, -3.48555445671081540000e-001) (50, -9.82382237911224370000e-001) (51, 7.04333126544952390000e-001) (52, 6.46693557500839230000e-002) (42, 4.54036206007003780000e-001) (43, -3.04050803184509280000e-001) (44, 6.11655294895172120000e-001) (45, -1.07737112045288090000e+000) (46, -1.47222185134887700000e+000) (47, 8.03129136562347410000e-001) (48, -9.32114645838737490000e-002) (49, 6.55862569808959960000e-001) (50, -7.71309614181518550000e-001) (51, 7.77255177497863770000e-001) (52, 2.49252598732709880000e-002) (42, 2.92448729276657100000e-001) (43, -1.19582271575927730000e+000) (44, 4.70667183399200440000e-001) (45, -6.23395264148712160000e-001) (46, -1.41076517105102540000e+000) (47, 9.73109245300292970000e-001) (48, 1.08689114451408390000e-001) (49, 3.04038763046264650000e-001) (50, 2.53180433064699170000e-002) (51, 7.32474505901336670000e-001) (52, 2.89603974670171740000e-002) (42, 1.13615237176418300000e-001) (43, -1.84888827800750730000e+000) (44, 4.39302980899810790000e-001) (45, 4.52504515647888180000e-001) (46, -1.43512392044067380000e+000) (47, 1.14903998374938960000e+000) (48, 3.70373487472534180000e-001) (49, -7.31456160545349120000e-001) (50, 9.69897925853729250000e-001) (51, 5.31963467597961430000e-001) (52, -5.33708706498146060000e-002) (42, 6.19460523128509520000e-001) (43, 1.86253711581230160000e-001) (44, 7.00973093509674070000e-001) (45, -9.51591581106185910000e-002) (46, -2.25875091552734370000e+000) (47, 9.75685596466064450000e-001) (48, -5.34282982349395750000e-001) (49, -1.83566462993621830000e+000) (50, 3.07787626981735230000e-001) (51, 5.97487092018127440000e-001) (52, 2.30032756924629210000e-001) (42, 5.32912790775299070000e-001) (43, 9.52293723821640010000e-002) (44, 7.89961636066436770000e-001) (45, -1.07816958427429200000e+000) (46, -1.72677731513977050000e+000) (47, 9.65002834796905520000e-001) (48, -7.06671237945556640000e-001) (49, -1.56124293804168700000e-001) (50, -4.88420248031616210000e-001) (51, 6.43579602241516110000e-001) (52, 1.97029516100883480000e-001) (42, 6.19467854499816890000e-001) (43, -3.70929181575775150000e-001) (44, 6.84365332126617430000e-001) (45, -1.40219438076019290000e+000) (46, -1.10054302215576170000e+000) (47, 8.18156778812408450000e-001) (48, -7.90931701660156250000e-001) (49, 9.33347404003143310000e-001) (50, -8.14316451549530030000e-001) (51, 7.44930028915405270000e-001) (52, 6.99175670742988590000e-002) (42, 4.17856574058532710000e-001) (43, -1.01448559761047360000e+000) (44, 7.18154191970825200000e-001) (45, -7.93781578540802000000e-001) (46, -8.04680049419403080000e-001) (47, 9.97396051883697510000e-001) (48, -5.96508026123046880000e-001) (49, 4.55937862396240230000e-001) (50, -5.80420911312103270000e-001) (51, 6.36395156383514400000e-001) (52, 6.54079318046569820000e-002) (42, 2.89247363805770870000e-001) (43, -1.62419402599334720000e+000) (44, 5.39041161537170410000e-001) (45, 4.13647532463073730000e-001) (46, -7.27751731872558590000e-001) (47, 1.08704614639282230000e+000) (48, -2.14730620384216310000e-001) (49, -6.49319708347320560000e-001) (50, 7.07442760467529300000e-002) (51, 6.16795837879180910000e-001) (52, -2.69548334181308750000e-002) (42, 6.17002427577972410000e-001) (43, 1.56763598322868350000e-001) (44, 7.27354884147644040000e-001) (45, 2.00571656227111820000e-001) (46, -2.47213292121887210000e+000) (47, 8.55884015560150150000e-001) (48, -9.72105979919433590000e-001) (49, -1.43448257446289060000e+000) (50, 1.33418226242065430000e+000) (51, 3.94864052534103390000e-001) (52, 5.83289451897144320000e-002) (42, 5.48176050186157230000e-001) (43, 2.22541466355323790000e-001) (44, 7.48864829540252690000e-001) (45, -6.65744721889495850000e-001) (46, -1.83842039108276370000e+000) (47, 8.80856692790985110000e-001) (48, -1.11540865898132320000e+000) (49, 1.94602057337760930000e-001) (50, 2.89972603321075440000e-001) (51, 4.90409433841705320000e-001) (52, -4.52883206307888030000e-002) (42, 5.13630270957946780000e-001) (43, 8.09208750724792480000e-002) (44, 7.86693632602691650000e-001) (45, -8.57972741127014160000e-001) (46, -1.02891492843627930000e+000) (47, 7.66018748283386230000e-001) (48, -1.18903911113739010000e+000) (49, 1.18457019329071040000e+000) (50, -6.78016364574432370000e-001) (51, 5.93628108501434330000e-001) (52, -1.41783475875854490000e-001) (42, 5.48654258251190190000e-001) (43, -4.43589776754379270000e-001) (44, 6.70114040374755860000e-001) (45, -8.19430053234100340000e-002) (46, -4.26037997007370000000e-001) (47, 7.02787995338439940000e-001) (48, -1.01153504848480220000e+000) (49, 7.43776500225067140000e-001) (50, -9.49499845504760740000e-001) (51, 6.97821319103240970000e-001) (52, -2.21196889877319340000e-001) (42, 4.91115391254425050000e-001) (43, -1.00658559799194340000e+000) (44, 5.58589398860931400000e-001) (45, 1.06958103179931640000e+000) (46, -1.93910375237464900000e-001) (47, 6.33205831050872800000e-001) (48, -7.01443612575531010000e-001) (49, -3.66861015558242800000e-001) (50, -6.65928423404693600000e-001) (51, 7.60558843612670900000e-001) (52, -2.18240335583686830000e-001) (42, 4.75634992122650150000e-001) (43, 3.51387977600097660000e-001) (44, 7.42249727249145510000e-001) (45, 7.26760864257812500000e-001) (46, -2.66210079193115230000e+000) (47, 8.61458837985992430000e-001) (48, -1.14015913009643550000e+000) (49, -1.08305668830871580000e+000) (50, 2.08833742141723630000e+000) (51, 1.52308210730552670000e-001) (52, -2.37888932228088380000e-001) (42, 5.01653015613555910000e-001) (43, 5.13677060604095460000e-001) (44, 6.81288361549377440000e-001) (45, 2.80662328004837040000e-001) (46, -2.00707745552062990000e+000) (47, 6.74531161785125730000e-001) (48, -1.28402137756347660000e+000) (49, 4.10937994718551640000e-001) (50, 1.01851499080657960000e+000) (51, 3.48432272672653200000e-001) (52, -3.98192644119262700000e-001) (42, 4.04202282428741460000e-001) (43, 5.82324802875518800000e-001) (44, 7.16201901435852050000e-001) (45, 2.32903450727462770000e-001) (46, -1.17766571044921870000e+000) (47, 5.77437698841094970000e-001) (48, -1.28561162948608400000e+000) (49, 1.22672545909881590000e+000) (50, -2.72662073373794560000e-001) (51, 5.16636252403259280000e-001) (52, -4.74777221679687500000e-001) (42, 2.13370412588119510000e-001) (43, 3.57346534729003910000e-001) (44, 7.70933389663696290000e-001) (45, 8.39759886264801030000e-001) (46, -5.54649233818054200000e-001) (47, 5.49515843391418460000e-001) (48, -1.10024356842041020000e+000) (49, 8.54195892810821530000e-001) (50, -1.11076104640960690000e+000) (51, 6.60346269607543950000e-001) (52, -3.93923550844192500000e-001) (42, 1.79304763674736020000e-001) (43, -1.28666266798973080000e-001) (44, 7.23347842693328860000e-001) (45, 1.75309872627258300000e+000) (46, -1.99457600712776180000e-001) (47, 4.77505534887313840000e-001) (48, -8.44104647636413570000e-001) (49, -1.25618726015090940000e-001) (50, -1.14865171909332280000e+000) (51, 7.35957324504852290000e-001) (52, -3.46652179956436160000e-001) 
